<?xml version="1.0"?>
<opencv_storage>
<cascade>
  <stageType>BOOST</stageType>
  <featureType>HAAR</featureType>
  <height>24</height>
  <width>24</width>
  <stageParams>
    <boostType>GAB</boostType>
    <minHitRate>9.9500000476837158e-01</minHitRate>
    <maxFalseAlarm>5.0000000000000000e-01</maxFalseAlarm>
    <weightTrimRate>9.4999998807907104e-01</weightTrimRate>
    <maxDepth>1</maxDepth>
    <maxWeakCount>100</maxWeakCount></stageParams>
  <featureParams>
    <maxCatCount>0</maxCatCount>
    <featSize>1</featSize>
    <mode>BASIC</mode></featureParams>
  <stageNum>1</stageNum>
  <stages>
    <!-- stage 0 -->
    <_>
      <maxWeakCount>17</maxWeakCount>
      <stageThreshold>-3.9367908239364624e-01</stageThreshold>
      <weakClassifiers>
        <_>
          <internalNodes>
            0 -1 7 -2.2768224589526653e-03</internalNodes>
          <leafValues>
            -3.5055351257324219e-01 8.0559188127517700e-01</leafValues></_>
        <_>
          <internalNodes>
            0 -1 4 -1.0936445323750377e-03</internalNodes>
          <leafValues>
            -4.8216974735260010e-01 4.2491051554679871e-01</leafValues></_>
        <_>
          <internalNodes>
            0 -1 1 1.6050514578819275e-01</internalNodes>
          <leafValues>
            -1.1863819509744644e-01 7.9307919740676880e-01</leafValues></_>
        <_>
          <internalNodes>
            0 -1 6 7.1220591664314270e-02</internalNodes>
          <leafValues>
            -1.5750566124916077e-01 6.7035353183746338e-01</leafValues></_>
        <_>
          <internalNodes>
            0 -1 15 1.0941363871097565e-03</internalNodes>
          <leafValues>
            1.7950329184532166e-01 -5.6337553262710571e-01</leafValues></_>
        <_>
          <internalNodes>
            0 -1 3 9.6454322338104248e-02</internalNodes>
          <leafValues>
            -1.6596248745918274e-01 5.7257920503616333e-01</leafValues></_>
        <_>
          <internalNodes>
            0 -1 9 -6.8520620465278625e-02</internalNodes>
          <leafValues>
            5.2022355794906616e-01 -2.4351942539215088e-01</leafValues></_>
        <_>
          <internalNodes>
            0 -1 0 6.8850221578031778e-04</internalNodes>
          <leafValues>
            1.8167765438556671e-01 -5.2222430706024170e-01</leafValues></_>
        <_>
          <internalNodes>
            0 -1 0 -5.2990752737969160e-04</internalNodes>
          <leafValues>
            -5.9927296638488770e-01 1.4288562536239624e-01</leafValues></_>
        <_>
          <internalNodes>
            0 -1 13 -3.4388850326649845e-04</internalNodes>
          <leafValues>
            -4.4683820009231567e-01 1.5099084377288818e-01</leafValues></_>
        <_>
          <internalNodes>
            0 -1 8 1.9438270246610045e-03</internalNodes>
          <leafValues>
            9.4810709357261658e-02 -6.6717618703842163e-01</leafValues></_>
        <_>
          <internalNodes>
            0 -1 2 1.8153910059481859e-03</internalNodes>
          <leafValues>
            1.2207520753145218e-01 -4.9743968248367310e-01</leafValues></_>
        <_>
          <internalNodes>
            0 -1 14 1.5887548215687275e-03</internalNodes>
          <leafValues>
            9.7983501851558685e-02 -6.2464088201522827e-01</leafValues></_>
        <_>
          <internalNodes>
            0 -1 5 -5.8875903487205505e-02</internalNodes>
          <leafValues>
            4.9803641438484192e-01 -1.4330628514289856e-01</leafValues></_>
        <_>
          <internalNodes>
            0 -1 12 -2.2907804697751999e-02</internalNodes>
          <leafValues>
            4.6618625521659851e-01 -1.4065684378147125e-01</leafValues></_>
        <_>
          <internalNodes>
            0 -1 10 -8.2099951803684235e-02</internalNodes>
          <leafValues>
            5.5773878097534180e-01 -1.7226164042949677e-01</leafValues></_>
        <_>
          <internalNodes>
            0 -1 11 -1.7790521960705519e-03</internalNodes>
          <leafValues>
            -6.8540233373641968e-01 1.1000119149684906e-01</leafValues></_></weakClassifiers></_></stages>
  <features>
    <_>
      <rects>
        <_>
          0 2 2 2 -1.</_>
        <_>
          0 2 1 1 2.</_>
        <_>
          1 3 1 1 2.</_></rects>
      <tilted>0</tilted></_>
    <_>
      <rects>
        <_>
          0 10 24 6 -1.</_>
        <_>
          8 10 8 6 3.</_></rects>
      <tilted>0</tilted></_>
    <_>
      <rects>
        <_>
          1 8 2 3 -1.</_>
        <_>
          1 9 2 1 3.</_></rects>
      <tilted>0</tilted></_>
    <_>
      <rects>
        <_>
          2 1 16 14 -1.</_>
        <_>
          2 8 16 7 2.</_></rects>
      <tilted>0</tilted></_>
    <_>
      <rects>
        <_>
          2 22 2 2 -1.</_>
        <_>
          2 22 1 1 2.</_>
        <_>
          3 23 1 1 2.</_></rects>
      <tilted>0</tilted></_>
    <_>
      <rects>
        <_>
          3 5 12 19 -1.</_>
        <_>
          7 5 4 19 3.</_></rects>
      <tilted>0</tilted></_>
    <_>
      <rects>
        <_>
          3 14 16 10 -1.</_>
        <_>
          3 19 16 5 2.</_></rects>
      <tilted>0</tilted></_>
    <_>
      <rects>
        <_>
          3 22 2 2 -1.</_>
        <_>
          3 22 1 1 2.</_>
        <_>
          4 23 1 1 2.</_></rects>
      <tilted>0</tilted></_>
    <_>
      <rects>
        <_>
          3 23 3 1 -1.</_>
        <_>
          4 23 1 1 3.</_></rects>
      <tilted>0</tilted></_>
    <_>
      <rects>
        <_>
          4 0 14 10 -1.</_>
        <_>
          4 5 14 5 2.</_></rects>
      <tilted>0</tilted></_>
    <_>
      <rects>
        <_>
          9 2 15 18 -1.</_>
        <_>
          14 2 5 18 3.</_></rects>
      <tilted>0</tilted></_>
    <_>
      <rects>
        <_>
          15 22 2 2 -1.</_>
        <_>
          15 22 1 1 2.</_>
        <_>
          16 23 1 1 2.</_></rects>
      <tilted>0</tilted></_>
    <_>
      <rects>
        <_>
          16 3 6 17 -1.</_>
        <_>
          19 3 3 17 2.</_></rects>
      <tilted>0</tilted></_>
    <_>
      <rects>
        <_>
          23 0 1 2 -1.</_>
        <_>
          23 1 1 1 2.</_></rects>
      <tilted>0</tilted></_>
    <_>
      <rects>
        <_>
          23 10 1 3 -1.</_>
        <_>
          23 11 1 1 3.</_></rects>
      <tilted>0</tilted></_>
    <_>
      <rects>
        <_>
          23 11 1 3 -1.</_>
        <_>
          23 12 1 1 3.</_></rects>
      <tilted>0</tilted></_></features></cascade>
</opencv_storage>
